-0.07844469637507426
-0.43178908918619757
-0.13218994035269227
0.42103339546218704
0.041851621563009526
0.041180844426878915
0.06761812318056697
0.16658056770798818
-0.3805921815920119
0.3818878130372524
-0.041397555060811254
-0.2386053887700168
0.1848050531988692
-0.3638378588750017
-0.2758817766118389
0.13315492640602725
0.5121999825264535
0.08964534042810264
0.02061142904811748
-0.5397556582959884
-0.5452809831498323
-0.3221154960417611
0.4750669180753545
-0.23621466494439677
0.2524914803529659
0.24935319680724172
-0.21052292698181463
0.35502860374554335
-0.17629429967374666
-0.27504387275418085
0.19424567597320033
0.055705608039746585
0.5082411317799983
0.01383777024682684
0.059991340128448
0.3272452181565813
-0.5710750796389487
0.0717415723483265
-0.44490596238315866
-0.31713177238928447
0.496309996635722
-0.07414787106419055
-0.05839312370637577
0.5243106547196543
-0.15602030798896863
0.49042252139966397
-0.4033731175784291
-0.06319889976207146
0.17537507375140973
-0.09518154283489993
0.0008144295751188185
-0.14211214861943702
-0.026332006107536145
0.3784138317774696
0.06550190925808853
-0.2285062756448284
-0.07576613931209335
-0.09876679774455231
-0.11519188608865881
0.4411000595095125
0.23261064777209617
0.4000598864854862
-0.27845542964474695
0.44990088533243383
-0.11114434744429857
-0.387247615579225
-0.4123385047734911
-0.08591903618906223
0.5041313907556308
0.591036191622249
0.2033236624031062
-0.11267907646484951
-0.49270307934288166
0.009623896353106095
-0.38112193451515003
-0.07585713271307064
0.4047602012323069
-0.2825786481559872
-0.2556041261123284
0.2555777606171319
0.12749198655440008
-0.3720134621793924
-0.15821873929640742
0.5999458938323342
0.497437621528761
0.34278283644863816
-0.48587773619185487
-0.09557827954784023
-0.34330153193011026
-0.32109313516024396
-0.26570449364366033
0.3374839406237842
-0.33687090730946206
-0.23063229028311802
-0.3137544909327687
-0.22406230222176032
-0.42008988452714685
-0.02231160768292117
-0.3945710366218798
-0.18837050130398414
-0.08827472470172266
0.22570879198455548
0.033923615244519416
0.07826858113727918
-0.4633316656869592
-0.14636084859255588
0.28596064752983463
-0.007893120041734723
0.0660641980285824
0.015483095438868026
-0.4350450285536262
0.060229240930133585
-0.2684456603152159
0.01534402032515773
-0.4658426393880246
-0.2061557884138243
-0.4673405635950911
-0.49942092852868025
0.46714188896639225
-0.3182012239977323
0.31024023242843024
0.17801636754421316
-0.35126681505556
-0.09468500599276038
-0.02137974458580561
0.27082243789175203
-0.04418991157729703
-0.4646609886428695
-0.3581049649108631
0.018943888410118404
-0.2901275445918657
-0.2131254316018282
0.3755082485912926
-0.012826945044427435
0.30106643516726994
-0.11602618749875668
-0.15212562347343955
0.4528961781337082
-0.13964996004073682
0.5005466106510916
0.03809565135359751
-0.0871921966495095
-0.009301938254124077
0.1506279394687796
-0.4691578003508043
0.24228904968497594
0.2466443136167215
-0.3449231104946294
0.058077320811678886
-0.3788437874818943
-0.3756844403942325
-0.09800653026113983
-0.4172270041606495
-0.021133991949936818
0.07635282980218819
0.25740236065596583
-0.33182038060844626
0.20959260949569894
0.2133685373380122
-0.20710934849345866
-0.3855460043534724
0.1400884858046406
0.5256128423870663
-0.40288477853426247
0.13516305218311472
-0.3389477750110216
0.010917774185853154
0.27034084092569
-0.04376134017824606
0.34413009655244386
-0.08765680701414579
-0.19836870565195167
-0.24405890039335798
0.13737905275055762
-0.4952721809938396
-0.44409725820958873
0.010652931062263674
-0.2691024998653964
0.3125130496704165
0.23560292427322002
0.4700241055288492
0.1981638454752459
-0.3393127316378254
-0.246425699325264
-0.08183693868703268
0.2636945882490146
0.06951404545339236
-0.25224851044926816
0.41026601032827936
-0.3279207869081871
-0.2918805929591288
-0.2564701581424106
-0.26786652090168583
-0.29681503484516464
-0.5721618515966881
0.32376650811900076
0.48765968341496846
-0.00592309522891547
-0.1988294334191989
0.13887102962694112
0.047659420195493504
0.39630303706439146
0.3440469398595158
-0.4069676694813512
-0.31413730578772087
-0.01931696459923969
0.20442658257456858
0.19565707849548475
0.16304108547285692
-0.28686737353153213
0.2785224554080448
-0.2666017422421482
0.4818498242064976
0.17476552333776685
-0.27235286782752366
-0.22160891195877766
0.10279215247878354
0.05206339643818118
0.24242020131237685
0.2487225062244798
-0.22557401339275096
0.4948526339649794
0.4147947804913343
-0.40322332409351835
0.12145358805587117
0.43670851364122976
0.5227924045167516
-0.3242569232329853
-0.4462387396587637
0.4577877049837046
-0.3938618309639127
-0.3472480714115859
0.3456958885971881
-0.32533975628697
0.16892695563331442
-0.02008030917064687
0.40181316116705523
0.3957879363635659
0.41635016388688095
-0.4505942495081413
0.28068882702648656
-0.0584408125530898
0.208927532507822
-0.31779860622062783
-0.43996382295575004
0.5309662315916714
0.09079155922101559
0.0035625502783944315
0.4690015221634023
0.45826539036905234
0.03378167287943693
0.05182922701766497
-0.46064806867775066
0.2592991163431716
-0.45625618574722837
0.32879260174293823
0.18810258791907708
-0.3483043374526659
-0.05668851716606902
-0.02851541440985743
0.19029064833854578
0.02084190247467067
-0.12727212268871602
0.10691891673181758
-0.4982234766677186
0.39243891143751175
-0.3570679508561904
-0.2245281099544871
0.36617069572404165
-0.41332699519415056
-0.17405362815312234
-0.46616867727491634
0.07276945244529393
-0.20020118807652929
0.047684872475669285
0.1707073180055056
0.13621158644149658
-0.2973761378254805
-0.3005518809492178
0.21804128285115293
-0.010194264058560425
0.3435500267766353
-0.11589019265869398
0.016798329854418946
-0.3247451793027451
0.4286780031682214
-0.29559087469973755
-0.07832608864057199
-0.08870036107695443
-0.518712485480756
0.007997283760092887
-0.08310068593624731
-0.34446937494827967
-0.2947376270137041
-0.2938215306966791
0.14138573942449975
-0.2872834219575858
0.06429301409683744
0.49612484423867564
-0.162529464126082
0.04259689286632884
-0.4493001645076029
-0.1277158111375118
0.2707575623429721
0.046563568482109206
0.1622239523502011
-0.22888419201997498
0.4445904817649625
0.00010049166270060676
-0.5006773273621711
0.057825083410720596
-0.04281657877519294
-0.21737724397624036
0.30152617869350445
0.23461265116963986
-0.3012901277998144
-0.4525973809299345
-0.5511915371515936
-0.07787508181708931
0.01569416700126844
-0.3678849622433261
0.038672435506120824
-0.07246807313294176
-0.07439824711687196
-0.5412541894260441
-0.3865694957671472
0.26025821363866314
0.5149921254308039
-0.2745900087244414
0.1537016045396888
-0.40752533830675747
-0.21629112263780698
-0.48867219961320707
0.110563677273401
0.4208968677255207
-0.04571951714012952
-0.12790392357639654
-0.296092712623866
-0.4112327030895806
-0.059347073656423055
-0.3614466306915504
-0.20511012558269534
0.25800209193199425
0.30494853437670233
-0.4998085886398785
0.32033519650249775
0.48996783611966177
-0.2431334528588764
-0.35419679144849137
-0.1621273529140164
0.12455043710910324
-0.10377718754727419
0.09062421114212595
-0.2835856250205149
-0.05323168314563617
-0.597132480820948
-0.2640969449402176
-0.2649233141720521
-0.07133054726334818
-0.30215165315746856
0.025920789727643095
-0.12444997746913725
0.17036963232334823
0.25570038835898495
-0.4780412680446505
0.06773541221218539
0.2366891761896878
0.24873692795266025
0.03564016085618354
-0.11160830851610264
-0.2281881565956614
0.13255759232207184
-0.2780277717713679
0.20346921425114453
0.5566738614962424
0.1694643179505655
0.23164339075737767
-0.5093590556927199
0.25499767269145895
0.2964620182662926
-0.35535599191813866
-0.07508062595406317
0.009101789396980394
-0.2916032488979935
-0.4041870706943276
0.48409142284469786
0.170233969859021
0.04582861414116544
-0.21569795355259275
0.211274098785614
0.20637426449711285
-0.32615564856310886
-0.07736075944737873
-0.2973228608279719
-0.15428546591628908
-0.09345556623284815
0.318325145097693
-0.3843139848931382
-0.149550340123286
0.1788668352381555
0.42267610770328085
0.4002401539894473
0.15728030949221702
0.2554471657880475
-0.24488549449738653
-0.4241442048280161
0.3775527051409929
0.41268735606171203
0.03544997074658224
0.03543586845121041
0.5248450374448368
-0.021551972283808892
-0.34722468949373
-0.40251458356987685
0.04750630746468069
-0.499297492277719
-0.4103744965463287
-0.3117342207682237
-0.37842639583872056
0.48199420828367506
0.49665169114593694
0.3149019117315285
-0.0769791508923022
0.3238927787412232
-0.25170115365803397
-0.002704223295715829
0.19349292611056434
0.29105843746054577
0.32076968332741174
-0.18452270257006465
0.010456046032864073
0.40107764640721766
0.36282672815029926
0.05372663981456847
0.5929942990706609
-0.005884253380096179
-0.32019234975915684
0.29130185454965474
0.18641759466835672
-0.10752189283999437
-0.16460542964376165
0.1633393114702786
-0.14410881566755057
0.20046522161073554
0.4000243221112667
0.000490095385428282
-0.3550308686787091
0.21574765335944343
0.5333958194679093
-0.428849145949827
0.2948910850775131
-0.05522498677917843
-0.2316626081102768
0.47892465383829425
0.01577935423940977
-0.3224248506737594
-0.4047713297057317
0.5206357633724618
0.33904395747520394
0.40853789511296923
-0.14464833091089732
-0.22313422298354604
0.40217809974382857
-0.005384470581672221
0.3897607392512032
-0.17918356674481628
-0.32497917272121635
-0.36505703419551827
0.05664300839981377
0.3117253533351998
-0.32166596838657086
-0.010925165131297165
0.3498542865148223
0.3550679645582328
0.5088673054791002
0.055772907511514744
-0.2498290818950654
0.20190876202624827
0.35427487204856717
0.14260506920885763
-0.4018831111804663
-0.2576209507538093
0.45953575773643374
-0.10331563772757513
-0.0700768158306965
0.2920798804082127
-0.2617853576744897
-0.4757176625896426
-0.0872197366269092
-0.2326309056299934
0.16385847510581175
0.12947010028980233
-0.027048997706002362
0.46439590663373287
-0.1742590629807018
0.2753358447276557
0.03110374812334361
0.1085942777150513
0.38132205787011525
-0.4126309909508643
0.16911507516424867
0.11737173435046737
-0.18069479290182955
0.38444815061954274
0.1713057508879541
0.3100610128183423
0.421229968286084
-0.08469389908983496
0.45400447626541657
-0.040467418163967775
-0.0717903089341286
-0.26201712642011504
0.17022297312675758
0.5140595711082468
0.4705658579983966
0.3442018704691437
-0.4534974925288553
-0.0882911046314159
-0.035208638384057425
0.4361103294811321
0.023353230668731045
-0.322175578165938
-0.310130180052515
0.1445985468541095
-0.24130249909298707
-0.41307793202531773
-0.38276027554179787
-0.5179568118093967
0.5040994148954691
-0.05434294655278059
-0.400451213374418
0.20367247186025278
0.4962192931319868
0.26044528629018615
0.44243406082073555
0.22590510545454415
0.43025393809668516
-0.3869082755406622
-0.07924974723890502
-0.14600928575923824
-0.15962324326606098
-0.2514548952338993
-0.0286436596585257
-0.41546588583001404
0.2380236831846817
0.0677291682710645
-0.2528820044860134
0.42399654663931946
0.4023822693527366
0.07250155911828071
-0.39986090366006
-0.35691262745388785
0.34610352222595936
0.13045780575998253
-0.15299748530726598
0.48550950775058666
-0.2509696122764127
0.23394568635039284
0.49754492669659905
-0.07334438471447012
-0.2937334445808437
0.20202873033624327
-0.39238343902294337
-0.3038725447374853
-0.4222805167148207
0.16866326672591353
0.06521726355367817
-0.01470835957833534
0.2676481374152141
-0.2653984980479394
0.378866265330873
-0.4428303504789726
0.45920311072834213
0.34415141738237065
0.17104346477875143
0.12741771470054136
-0.2332284613459504
0.11833866856880024
0.04984521039364137
-0.02349329564714485
0.41031358242134963
0.4361076150246107
-0.34350316008905196
0.5321530562193573
-0.47215100937827037
-0.48162486244875286
0.027741044878722806
0.1948581444127162
0.1391657804121474
0.024420564065301797
0.37118344708102796
0.11770381301184878
0.009524441289998077
0.11226186736385825
0.3571949738991909
0.2859271948564379
-0.16281556287460594
-0.03261213836940167
-0.08840110455133367
-0.023368174458906522
0.2710504177794647
-0.1008532722310712
-0.23848847415384036
-0.2844451918229141
-0.19401628648976404
0.3636714782308965
-0.2688106002532536
-0.03377006256967241
0.5504279409360163
0.236931740573241
-0.04890374068654782
0.05020617797104842
-0.08332517786209007
0.4140881675451605
0.22642151623479048
-0.38597094750575095
-0.25926701015528614
-0.2873717994460185
0.018257553498277845
0.05755229374471829
-0.10159813804931368
0.03516898259966577
-0.10663292643189674
0.46350868003533346
-0.23609067788362098
-0.4410677179821655
-0.4776508929336675
-0.3036594116104396
-0.06501257716383652
0.1768509321343498
0.39283841085815313
0.5282746719511279
0.37997195180282395
-0.04301146072232031
0.4146615315163004
0.4389290654967632
-0.11539276220378684
-0.5204979586069264
-0.0549989023353364
0.5730255070116187
-0.22428285470414522
0.07414009760229133
-0.024951012207048734
0.2219673269286086
0.16497485297793185
0.35336636485780926
0.251409533275068
-0.4187139761344002
-0.5215280578742295
-0.4887639266977944
-0.0443872302600195
-0.28715357484049414
0.3075322788127019
-0.009418398933737965
0.24440207672258002
0.19899765388785237
-0.08856710115786953
0.20511018600096878
0.1476872099736458
0.5133243752541663
0.5958589017680938
0.3341851382880927
0.17324624050228557
0.42147253721268435
-0.17838027594242592
-0.3698243495218786
0.20879293373788474
0.15472257602036943
0.26687728532918015
0.21195435963980777
-0.09881357426311649
0.2303441195347519
0.21749873717790874
-0.36534807681758313
0.19035419045033344
0.0197465287958534
0.4706288600140209
0.16205286997361476
-0.2124382179212324
-0.3079341460677899
-0.024929627464813864
-0.09153335725408178
0.12818823990570474
-0.4973798096186313
-0.3478899229978558
0.15276485955230842
-0.14230409123176815
-0.12574507821151426
0.48688742916627775
-0.20130328077501772
-0.49924799870705244
-0.06486363171476724
-0.26463606878842527
0.0728339140515775
0.20540592898038657
0.020028903918990405
0.08780399627276382
-0.38322703750382114
0.09328276011807257
0.44574187636832124
-0.10132514385449234
-0.3526454397481514
-0.13630156521029113
0.10188712272681637
-0.4609128436541877
-0.405396746312557
-0.007787092566451805
0.05536659681191572
-0.0283464409588128
-0.5013125613869004
-0.010921915172154906
0.48016586179252796
-0.001436384705257367
-0.06836260646151805
-0.29512528498870605
0.23394789805776958
0.022820676052348537
-0.09026610061662362
-0.4504196077625696
0.16936618332484288
0.028194717820516874
-0.04549022182112639
-0.3094926444350622
0.19208941042317754
0.04683330528248631
0.21712869352389355
-0.17218286265491137
-0.2707505696102081
-0.3560406648090702
-0.0143229697646375
-0.17785731511687927
-0.3981847242829809
0.46212429302886654
-0.052092257434283314
0.07894863528228993
0.13375267512016306
-0.12421956218230067
0.32539013359492275
0.06974865847624291
-0.3899797267793995
0.044989974134136405
-0.4863803781773857
0.16836011771771917
0.3020649324884196
-0.07964309131658648
0.3545123646249092
-0.3660945980152241
0.27592749843626646
-0.21879338336200285
0.3099380720409271
-0.4664861393440047
0.26965899633575274
-0.2710076450494209
-0.11369919865358362
-0.1580681957717145
-0.5716816432737662
-0.2868682782247489
0.37701956609482684
0.3511305446671017
-0.21864899475912386
-0.09816164519280815
0.26048013406949555
0.1722870160874806
0.3822399733298329
-0.18741274816235043
-0.3615207813358516
0.13641548641540654
-0.5023240526994004
-0.020783322473641522
-0.3054836655329129
-0.2502777372520142
-0.46445141701119963
-0.18608251899389497
-0.4841013796086151
0.20668912510430734
-0.12729558241275987
0.4292969155387494
-0.019180356651107584
-0.5108785897156134
0.543000158709105
0.4159857721639973
0.3089549479339892
-0.27432671279955695
-0.06254366336538435
0.35918953306728385
-0.28199101727226145
-0.26919564300754284
0.4710844763624173
-0.16300635235049588
-0.4678031894917396
-0.13445519809383244
0.5398480824258854
-0.14473656522700531
-0.3498148073374414
-0.28638984951830293
0.10946860087582437
-0.07592297094669834
0.17965256950919373
-0.2701902353789873
-0.4650807363987197
0.044415880261068845
-0.2927790102790861
-0.001506722399921632
-0.13896082827258738
-0.2652529673365702
0.16552648703908615
-0.24355351755432858
0.24014926613620277
0.14947578679415513
-0.1483246781871923
-0.5262981808524112
0.08068542382297324
0.19970865830614867
0.4797759457658681
-0.030009503753323067
0.14449157524818418
-0.21850324711469682
0.47220695461605705
0.18843608207968407
0.33038415886345157
-0.1637465657488465
0.19433567936741522
0.2936807203259093
0.4222354743377849
-0.41246475818951456
0.5052224378669596
-0.2894252086478612
-0.5458493345852061
0.34516318576490024
-0.24021249426289554
-0.4743853376266028
-0.038685161740664345
-0.41926037079492756
0.10022662323347384
-0.11302041016787805
-0.3197804687307419
-0.32003361838882094
-0.04539490162702986
0.10337011221858163
0.10531302111042468
-0.17094449065270467
0.1629364442396604
-0.18813245107592477
-0.12221991825919187
0.31525193619997877
-0.30198486759775783
0.056418503937104306
-0.2120864796687644
-0.28828977694592905
0.25597281148311274
-0.053830053228368493
0.09284544906887844
-0.48289742013114717
-0.3527956847573999
-0.10045548676356275
-0.016614989482717384
-0.23303577104404324
-0.0038673819180401504
-0.19020529986722076
0.26300828020976785
-0.16209094090524104
0.14263821339142074
0.06116791113976189
0.3164104110795804
0.35618918932655314
-0.29840590003683654
-0.22015079268202953
0.31651732748819916
0.2836386266458227
0.24902889759355654
0.37092328557086346
-0.11058081187433702
0.45503973727488056
0.10128236853728413
0.47773206202849644
0.15424769542988204
0.11069248178245004
0.14435517020637711
0.3712090166455254
-0.47307748940732
0.34344911057970884
0.0013083043773252415
-0.47966532931804584
-0.40169903474623125
-0.18902855901725368
0.1268585115869965
-0.33349251461263585
0.016253727890665266
0.19220885110639063
0.2722583229189199
-0.20332642865751047
-0.42556655658408665
0.3510131078839312
0.10488218504285195
-0.020554097771289682
0.5510718228179973
-0.46633991626848526
0.35179848388129625
-0.21357082880978603
-0.5755154552804268
-0.12436051656365292
0.05301051495698061
0.4445203499229845
-0.15547214189909866
0.25153709893898496
0.07371301480566601
-0.06781356533748469
-0.32791682216507456
-0.11715979135545386
-0.19440976396303652
-0.05275182501628673
-0.15261107864993428
-0.39390781701811733
0.08092633678350224
-0.26479783934879747
-0.020695214474178346
-0.18022625513879323
-0.43039184175727635
0.3282058186752657
-0.411260537488557
-0.06238258742384838
0.20412890045723403
-0.03611674496310687
-0.34866207303045577
-0.18699988900910997
0.27148061086948355
-0.09548638477084094
-0.26756850313127206
-0.3009488186171943
-0.15474264868822354
0.23359750514833869
-0.13433351800217205
0.3315696587617342
0.21328622009961903
0.22513002983255567
0.2994313583511328
0.19817247810804337
0.4092563667595975
0.4716807274299254
-0.021478240863998438
-0.19905212783235993
0.04052800369796184
-0.523528492077736
-0.23914370791699166
0.04331314222253008
0.34306657121947765
-0.3854748066475148
-0.5414304732896884
-0.14895841258197923
-0.44194544741267805
-0.028288256402478524
-0.4480626565229609
0.18202538014639288
0.2411753197365768
-0.4153708601126205
0.2543551544239674
0.11125269272132977
-0.5335495601887279
0.1077418713476222
0.05155912795076148
-0.3437077901018403
0.17176932768212325
-0.173253490810121
0.015541758693418653
-0.10268980952042783
-0.04057948278534489
0.23023572028814737
0.28143232476340335
0.23658431533327315
-0.17798187406892402
-0.4717965702931342
-0.10733634566501511
-0.5012029770767943
0.2566855986128153
-0.3011618651521611
0.4338469945756108
-0.27403088938397785
-0.5266530611990154
0.4627154600372469
-0.15969171870694812
-0.2712694812681953
0.15994923753522985
-0.33343826829533335
-0.3711934402170459
-0.33463066915815265
0.41094850050293275
0.35900697889641703
-0.14454180464263228
-0.4487930726998499
-0.4257687513599996
0.40282688983369713
0.0892178423313485
-0.3845231314601832
-0.5715171976932513
0.10860054231560207
-0.416723101239637
0.19756550635037792
-0.23837398553482553
0.18872202303495372
-0.1504253833613728
0.31876070681726876
-0.12232726702214966
-0.03893167562339636
0.013948196132446482
-0.0035639131055555237
0.5759161804901198
0.022157471302315414
0.1797084445148938
0.4405955986245449
0.36657383817813743
0.2778939706673407
0.014271446693759009
-0.2134450507306072
-0.3750744080036005
-0.36576550666146923
-0.3895299231935829
0.12525493977382246
0.32477065897377977
0.36378722655270934
-0.04414784827270232
0.3445615688606442
0.1365281905941197
-0.27742864720203453
-0.09698044087793264
-0.45599124447179584
0.15246393592627847
-0.028655816702610214
0.16435488945697216
0.35887073162742156
0.44300066854865733
-0.5099396566029301
0.3483611931265966
-0.34558792460164783
-0.2342455178248466
-0.15880813345476144
0.2904121571414221
0.19445076649767173
-0.2105615947721319
-0.4974744967253004
0.4876148726331268
-0.0671255640689865
-0.2904695418065917
-0.5743033893430085
-0.034092991726846995
-0.42975411809346786
0.39709668790948127
0.3268901615373715
0.20647653076514497
0.15692836759243556
-0.1296034109258335
-0.4333878265334987
0.03127075236022697
-0.45475426703899147
0.28256845235333283
0.4661762735112342
0.13206149912187262
-0.4975242565510935
0.3316787372924196
0.49179674620343444
-0.296873394080675
0.2796839541952197
-0.20748351092695402
0.5266523029523368
-0.013989494926781077
-0.2660887391941422
-0.16385535505878843
0.08458558299897863
0.43104290690260244
-0.27221346008549174
-0.12000495468876869
-0.22292984504077015
0.15982255045660385
0.11989236850078452
0.34860082342297055
-0.4547326423885722
-0.4480697297808537
0.4037746787127984
0.11577859925443261
-0.13371675982479428
0.4629084829754224
0.3554405846555644
-0.3628438107637076
0.2735470157368689
0.2481117066977837
-0.17586002733588715
0.5711216559864017
-0.042343223659126045
-0.05619616930225537
0.2603929169088459
-0.24696883933741615
0.054314433413044275
0.2985927131217912
-0.4127991502941478
0.5411448262775178
-0.3382479969097591
-0.25866824838734753
-0.3298980311906721
-0.09730267796054087
-0.2869056737583842
-0.31248131942449986
0.4753389408343054
-0.4002650440292292
0.37674054077596825
0.034939021079936475
-0.4916196063943248
-0.19007136740598798
0.2994303669624112
0.2597784404555953
0.2374224331484571
0.2890209095865062
-0.07879257454340456
0.03470007701554267
0.21650316403376435
-0.3781010160868954
0.08501783548136746
0.335733923559014
0.027837257684612128
0.04421480336438607
-0.12343719542917365
0.5616986539731638
0.013064683694804673
-0.38599237641016765
-0.36064566423596817
0.15643896757358497
-0.08534003826262103
-0.07501048601259533
0.3328682728743758
-0.43884589719547384
0.043497457894746294
0.013696465111077869
0.3448129007178686
0.16502458998542863
0.011815053964743685
-0.41805997520157906
0.3189114423739912
-0.3152803457360322
0.09765030439408376
0.05214464782720082
-0.2909573394605429
-0.2010727509152411
-0.16418371147421823
-0.03661805450436408
0.3987389518167096
-0.1282588253314011
0.023823299821271095
-0.11338975681109124
-0.49624804119093147
0.15169178377877351
-0.34660893571621626
0.03621722160735017
0.26214481333148404
0.019728655604084044
-0.44214169163884465
-0.22648637645010408
-0.34328573471281026
-0.3398649344098636
0.261013791179281
-0.23754847978769578
0.38762366970102796
-0.4291107656648053
0.16972363791804654
-0.1703835577739517
-0.45129712262017097
-0.49174007851713386
0.3673980602453907
0.2850249636817571
0.36228040349143587
-0.4710534860618892
-0.3475819214103765
0.1853424671173672
-0.20560344662969077
0.19470470981677762
-0.18868915151557775
0.2977313015195404
0.4727833317011519
-0.25142759781557095
0.16398678025777289
-0.45797495532548327
-0.3426198555379088
0.28447503007762615
0.06677135774897353
-0.015828975116191874
0.42216902791642547
0.06934951358979952
-0.4156694467970589
0.37371828759715225
-0.33741078237532285
-0.04363099501674576
-0.11582772932770867
-0.19636827340672022
0.48111211316945796
-0.05653582969451666
0.02581287612701194
0.5462281160429039
-0.39369580209630367
-0.14296338558144664
0.3847211258971816
0.30720365874783917
0.3274731246495288
-0.18919810878895116
-0.07268269744120603
0.3624351488604283
-0.28754985346407813
-0.27992067928032427
-0.09090299003521914
-0.3111953269790209
-0.04683491010665114
0.3290220212154401
0.28100183194568645
-0.331645778028354
-0.1010201735997941
-0.05777434023680129
-0.013726238108987238
0.3313329121157405
0.3649926518533018
0.17155385773338128
-0.355560677204265
-0.1923966596151042
-0.09531967038481132
-0.10519347795806713
0.343770765203121
0.13545061158020946
0.3858258352410592
0.4227386576373013
-0.511881665156845
-0.3836641955035198
0.12569535095666404
-0.2174231309815978
-0.48803609457450753
0.5319440911401356
0.22715689611668205
-0.10725550067988057
-0.2693688040743465
-0.07765078527800658
-0.05299023633871776
-0.25745255419650864
-0.3429415846531469
0.15496424486229607
-0.2569638490009107
-0.14627161987368711
0.2794146400989528
-0.376848255414173
0.2333495231132487
0.08739393539559304
0.2660189181162458
0.25917108331013855
0.4084875040069008
0.43568588044728634
-0.18319767736370277
-0.3799271398624045
-0.4308658945790362
0.42711951869651094
-0.024492457573715546
-0.33311732769336017
0.23568584403865334
0.22141441965606204
0.19134094772718788
0.5679247566147331
-0.05999348949051399
0.3444976306480067
-0.33265784923866476
-0.019344560567176167
-0.02677619478839805
0.013643534206202556
0.01790691595651999
0.2319059128677781
0.3131021826453276
-0.22163335885015809
0.08233621591567186
0.4202309230208425
0.4383300298696116
0.1468690857860675
-0.19991965760274302
0.47832655046739053
-0.24425179691277527
0.3554643389314288
0.1363925158313126
-0.3898561066785105
0.08496930032015607
-0.5592867536215202
-0.16239962606560435
-0.07621862085872172
0.3225825264404642
0.39598770019815716
-0.5427522209422438
0.20466468743780364
0.6022652079217645
0.522898222108515
-0.28704290011033157
-0.30967704533899093
-0.48085894332406026
-0.372098127168487
0.23845581318528009
-0.5147021541048321
0.06570772439896795
0.24062782011270584
0.2298877767467374
-0.07766901602433653
0.29699659391234207
0.4241741412439265
0.20042298716480944
-0.017120260471600583
0.14058009846221015
0.14259174970042204
0.04330127819563906
-0.4494442706827352
-0.5500236440718865
-0.3046660371345805
-0.3289615380091872
-0.17940795428195883
-0.1845643715982625
0.26660905638277327
0.31696414552487173
-0.5055647488334557
0.37748796687019587
0.3922030112870975
0.18859605391912657
-0.3741190241812953
-0.41799609167501356
-0.09043030321318898
0.18639048822672535
0.3120207462058687
-0.2820654411955355
-0.38806363373449543
-0.29925829821813804
0.297719867160837
-0.4712016348209082
-0.10845674856108531
0.05539837999346393
-0.25718673530875513
-0.31309569385727753
-0.16579960230792157
-0.013697585554344823
-0.3666654115969429
-0.24904153227375125
0.3523426715070347
0.2974007325954628
-0.5988539486802911
0.03154370138715453
-0.24861052477634135
-0.31679387947052634
-0.044028629696286174
-0.095653989175154
-0.14979042118210706
-0.4010501419160793
-0.34333588504141266
-0.2604444276879801
0.3728575881553073
0.24672812890568108
-0.28799068744834666
-0.26089038336744047
0.4229729597470595
-0.47386838968903666
0.40860205251951665
-0.3282300071907588
-0.2565038221888734
-0.3359053855318393
-0.10142075469019952
0.007602236542695349
0.008557141798749114
-0.2090505583357241
-0.4388114825403651
0.3492507322732937
-0.2597891418692404
-0.14794265034461523
0.20500328192161574
0.2497860061483956
0.3823510587028915
0.4844475912439441
-0.2797989949873284
0.12274474598381441
-0.43579468659510107
-0.47184216276655244
0.053253952669327996
-0.1722622253011879
0.5508601730789051
-0.04933254679677367
0.29470032538492963
-0.26869299550496184
0.05298244895062022
0.023217885853798022
0.11923863660734806
-0.23593380109377926
-0.3612988756288239
0.18576774472112764
0.35696869959048994
0.18285285206648558
0.17776176398414692
-0.24973606815079347
-0.46986269941413994
0.1777380029487335
-0.5790852993826556
0.33412862089929946
-0.2633261752405227
-0.17273042840890215
-0.2946358820335268
-0.2931147859349299
-0.5633477452395057
-0.3685360111377746
0.2828744491547189
0.5021152502337618
0.0736978459406337
0.005380260148624972
-0.026110806722449705
0.4801672335172703
-0.45958514687559965
-0.22992625787445548
-0.27774614436594053
0.23658882103898946
0.4241264261091819
-0.34028902283118667
0.2086470510404981
0.018726968061648853
0.24170817973584688
-0.29069958573139865
0.2075812544536253
-0.45322578505483807
0.44962477743631735
0.04114065737493045
-0.26440684777715245
0.2701248659137553
-0.05292754273096697
0.3751822946170978
-0.03442751205115341
-0.13457568385672417
-0.43473433602469175
-0.11595055084034454
-0.14769221683456465
0.07106019103323018
-0.07500973043590302
-0.31932359594595894
-0.012072361389555803
0.2924927368865695
0.5301212603260687
-0.14128643186475764
-0.23552815998812626
-0.023109545793175534
-0.13893141309175344
0.4067941151046269
-0.25592612859461566
-0.38535536234043
0.2225266016528634
-0.336333399324523
-0.14491099743488103
-0.32329869458327254
0.3119901069662756
-0.38752287211439107
-0.4076519351883003
0.05232352286372825
0.23994862621354793
0.12579438634292042
-0.3406890430673986
0.48303849396657006
-0.20712390394758065
0.06953876587370589
0.16012188739735514
0.11803784266589247
0.257164946820727
0.49043995058610107
0.388171704548413
-0.46820459585260504
0.3821338900096105
-0.30494622170968266
0.17614285873442928
-0.030791837094718263
0.48695994499474454
-0.34833338002545383
-0.13053995445478236
0.3138742442301064
0.369962410193082
-0.16523926768328198
0.09724577269509659
0.49090205022943856
0.07611429981262403
-0.1546224359247534
-0.0867750492016548
-0.573765291423878
0.3525274019644854
0.2713900753867679
0.4278147596009468
0.006725721655160515
0.09462441363727404
-0.4601341403645597
0.02294152414001963
0.10483689222106995
-0.5450386841232525
-0.30157023148407053
0.10072237441332989
-0.09770379677528725
0.49335445866456284
-0.3262855521719651
-0.4143695561197296
-0.22855391467566236
0.07285666605424784
-0.042004278277909174
-0.37215012593932034
0.2613867692909316
0.14664040248560148
-0.10010071216963864
0.4110547800602395
0.12408048651352566
-0.5182367708440048
0.4752523292479708
0.4773604441830617
0.3584541389080754
0.10592870238876663
0.295655749426323
0.1801036557898859
-0.1674582085311628
0.03525118540877443
-0.03550964258520996
0.4455928033855416
-0.30826473614615396
-0.3352542625919857
-0.3471278445612019
0.4506359975981171
0.41216134488333217
-0.08476996610869593
0.450086180491976
0.14980169220649855
0.17121302962121743
-0.19410742009801746
0.43354285090551564
0.1995388809627705
0.10067659764942312
0.011864623275464246
0.2824111984120053
0.04681478600388333
0.4094877762896816
0.013161120409496373
-0.18215503995222246
0.22744711845696405
0.06327316467661413
0.3595661114569994
-0.3943720183901096
-0.4274491961690634
-0.05457964665533953
0.11016691130615096
0.09855166374632505
0.04954324286972162
-0.500689775179104
-0.11395875129294114
-0.22668336137279568
-0.1406859644798209
0.08832049588308766
0.08818401379196814
0.17488810310570896
-0.454298977911933
-0.23403368600848226
0.11448561989949191
-0.26753707965615875
-0.11684948144104547
0.2108156271592318
-0.05992788625676436
0.34651082839568315
0.21704236121687337
0.35725866389724653
0.09663626552081434
-0.21781155973834765
0.129785176265584
-0.03262624619044048
0.40052624020330185
0.19560389422347074
0.13666578701422052
-0.04569210286979728
-0.17600604957716648
-0.2960026957622523
0.16399974390398586
0.09111429287083439
-0.09785551737362694
-0.25474062052546764
-0.2574752048779886
0.007756993649848406
-0.13314504875506192
0.2737492053793553
0.18733237801671151
0.13391379103812712
-0.551275913458089
-0.29543703066280075
-0.37218704732897273
0.3435352233442389
-0.028331225281819288
0.11299422160520695
-0.2601977694832255
-0.2589163977183234
-0.3686493034639816
0.1782315648427809
0.4172337231213791
-0.024189266906845683
0.1973605617530825
-0.13500550806517592
-0.49662616026576456
0.23320110219926468
-0.11036584376330756
-0.424985853518275
-0.36576599291087797
-0.33938223185945565
0.17387983303413795
-0.2634854762292117
0.4957271926275388
-0.4710105569244521
0.43653172502966947
-0.43836967033151414
0.3086207938901071
-0.4188784170939151
-0.20137725413612134
0.4188794220963223
-0.2435023038433798
-0.18100615390637426
-0.006936059976914731
0.2093230240166181
0.3737596419960835
0.2930890700651493
-0.501663774786471
0.24528636453540434
0.5112163329144463
-0.20096761859247583
0.2909513009601373
-0.3722680789195507
-0.5303570117523576
0.12059572152563741
-0.03948081400367262
0.11494730291259737
0.009160451690114573
0.4496390038675439
0.21618390093079734
-0.011758281201735242
-0.26165900841959316
-0.17483890698709478
0.0318645122190327
-0.3635865253300609
-0.02293892541082214
0.001713170241761623
-0.14299126352082484
-0.06865697316118438
-0.24413544809010226
-0.007024992763097259
0.18063130521794202
-0.2672255387738581
-0.5143791488860944
0.2819196155526378
-0.4943472187471815
-0.18790333771299483
0.20236175630818812
-0.06391451007530563
0.0643833436991701
-0.07312734397291552
-0.14887654661691682
-0.28251232886818545
-0.08977135862722399
-0.2502311506696636
0.26907910822515974
-0.30001812158222674
0.2069767657118184
0.4910672514963278
0.3662463998515607
-0.3661828819239347
-0.056264842892867095
-0.14630147428667456
-0.38080163653557847
-0.15660298804162798
-0.2371077085095706
0.14767566789815842
-0.5050234577970159
-0.39175653302758423
-0.27199690436670404
-0.07942423483167756
0.0212084022985061
-0.43194533432305515
-0.4082996208361582
0.4759192645057393
-0.5289830678783509
-0.05443809773912959
0.2748734475969234
-0.2961854775028889
-0.5176309182212743
-0.1471383057463877
-0.306149954652597
0.4199454995712572
-0.2838146222832289
-0.2877884397207882
-0.37285862833773614
0.23986941399723055
0.5001506297766629
-0.09162474340008799
-0.04177661972321089
-0.4798927577265469
0.10923995547100618
0.21174530265120517
0.3883873976719309
-0.1656894603698032
0.4121405711268267
0.47033310017299484
0.49185447517553504
0.30573929462500854
0.1869843842899971
-0.1521668041133267
-0.3011798425444369
0.07782156310738368
-0.15160995463514848
-0.10581591723167172
-0.1002012952071249
0.03357352332341683
0.20608383190151336
-0.26963420377911046
-0.0917460379771051
-0.36534276292385315
0.007465990927881217
0.3254214430922574
0.01568525379957168
-0.18767790080214608
0.08189273218900765
-0.04833333391893282
-0.2831054506284278
-0.42764533819515743
-0.12362618532303248
0.02002346712006364
-0.342052951444658
-0.3197252031719782
-0.289354085302901
-0.006009045978134387
0.09888967491392112
-0.10045669118036717
-0.17412413442440558
-0.2866416366311889
-0.17047926689341933
0.08717364096949301
0.4564859732647024
0.16483138213429488
-0.48254174507293596
-0.4321912911172515
-0.46906568441605584
-0.23582413635903482
-0.3334741603255736
-0.0520697784084812
-0.09053214245250214
0.4376673279129473
-0.12213366129259265
-0.1636040877308521
-0.3053043587962329
-0.11534904236513449
-0.38730479285539127
-0.6038858808786624
0.024683015247787682
0.05671285332196182
-0.24532010528486528
0.29619884856506556
-0.07950171788730498
0.48277635762398885
-0.07148241404917888
-0.026418652534497142
0.09764581680628265
0.3156497993094797
-0.003941036564943456
-0.01760807562859801
-0.021987477541979616
-0.38847765711082477
0.45143439935667734
-0.27226250964227555
0.30764188408269433
0.325268029704097
-0.4941247673216258
-0.42651574454142815
0.02864226285232493
0.40946825840976575
-0.5090243969490916
0.17715245393382648
-0.550632210109487
-0.3373030177719049
0.4157678618427818
0.15466843805407912
0.0573411671107516
-0.4127996331712762
0.015401256114413654
0.4899508469875186
0.24561832033980824
-0.13490754116232548
0.3845677152954992
-0.22682264513579842
-0.40927431727410674
-0.22904371861280629
-0.34479283874478783
-0.520156227125862
0.2926098613211046
0.010598007272193687
-0.3853060992173588
-0.033522540670372705
0.010661150134633405
-0.08195309853610212
-0.6015978572528996
0.36018899631209905
-0.5137204621431746
-0.3560096358015555
-0.43325710271259804
0.4533043416792509
0.371015345932703
-0.3479482401572084
-0.4325276603976392
0.5205304283267741
-0.03971154127468087
0.2964267770421747
-0.2694874808409137
-0.21350651145088492
0.4604001359614855
-0.3866074240196607
-0.1300005691278704
-0.23135561299246213
0.13548396410314972
0.013007618054762901
-0.05348327505451497
-0.32010253046511666
-0.41324584429328287
-0.31736708177763245
-0.3955956932316215
0.04208287863492452
-0.2900585600179052
0.06997815647137044
-0.5333746707283467
0.5004436767100715
-0.5909709571725266
-0.41942631371918393
-0.23854621452121286
0.04179261715307307
-0.18601867790380144
0.22458837388651154
0.6594030660641941
-0.18215487999700408
0.11553102397368448
-0.45263426998355205
0.01215628723586024
-0.3970315101390425
-0.2969997521565723
0.6651077596910254
-0.5283992532148336
0.2711103681244463
0.3614965366759559
-0.4852056428480444
0.032989285605878646
-0.13725525286634938
-0.7290782105816402
0.12678958831839104
-0.46987483366565186
-0.3273350548315416
0.26809144959956405
0.0874299655398895
0.13031154570585987
-0.36949957829251107
-0.6603567708802116
-0.38322092421313264
-0.6172584529477303
0.15209749503467218
-0.10263820060906949
-0.225438878582815
0.2998070970002048
0.004630673164026799
-0.4955916022665667
0.3136683700750315
-0.5860633027213372
0.43260244142941273
0.6052332710340037
0.12954014911412437
-0.16996201584612985
-0.5305406884432311
0.5557739730546278
0.26505639893438604
0.2000649113805834
-0.5780672696094332
0.33729919693711896
0.18510384368388708
0.4956202877019523
-0.025341644674876405
-0.2765494300853903
-0.3649907206675714
0.32964884770192515
-0.5775154802002911
0.03845339502490806
0.12639551717175693
-0.684900053873332
0.3600274957850576
0.336612497524166
-0.17002378058913903
-0.17892616825019803
0.23401138507503128
0.6393776122681675
0.1279269763670217
0.31768468545251777
-0.03943808020870034
-0.531170701010671
-0.3045645447426917
-0.04781994123137996
0.09588435392653556
-0.14284413297099044
-0.6981154065967824
-0.8099882753240263
-0.36518325296667264
-0.5217543383719344
-0.7092463168551418
0.13468324979314383
-0.16801243834486437
0.04518351974066934
-0.36081771146812136
-0.30204851645510156
0.5618463035067107
0.29891515570131044
-0.5409042054033981
0.638619151800833
-0.1418372885755226
-0.09645988568635785
0.6979701541420312
0.4394883465108631
-0.5323637086554999
-0.1627232765323979
-0.2671958773242214
-0.30585143924301594
-0.45310523684299664
0.08687123987644768
-0.1358635505328482
-0.44300504441438293
-0.16772311997885359
0.017838323112322578
0.221421341840797
-0.4720993212809743
0.22686405025712514
0.003108033893250193
-0.47298996014761957
0.4595521763967418
-0.5509877883361222
-0.3283391437792636
0.2745262378053072
0.4354936170382142
-0.13691884426627085
0.08537429311160973
-0.015121480494404349
0.21290229039353
-0.11844175769434886
-0.577928186065739
0.3040978540649231
0.2020008360517637
-0.17938212492432196
0.45880172944793385
-0.04883199871164794
-0.5927159258383311
-0.6213995325636367
0.2457059415487979
-0.285267555908472
-0.09244888490401244
0.46436666091239354
0.25688682552557524
-0.38033304932917605
-0.212217210657727
-0.09692025544914382
-0.5540790803223572
-0.0073806451558628555
0.05132506481022527
0.061635220474950486
-0.1110176457786041
-0.7142766257738602
0.3337471602280216
0.5789208050728909
-0.2816972609391964
-0.2092796621876818
0.021470593579206554
0.33985152430866533
-0.2381511021612827
-0.02359876784270473
-0.22693020518302354
-0.03529739625561118
-0.10310213294861378
0.08632970834915105
0.3348441268010563
-0.38253225788316514
-0.39058018746985695
-0.04549003616229502
0.028996831114621396
-0.4408924594900492
0.08597311632569929
-0.0009086534929681812
-0.15572129369002105
0.08025857580499272
0.30955286367921814
0.5172474117579383
0.4601808598461726
0.16450862889161597
0.0656786444645184
-0.3741880854039607
0.542227823587665
0.3174164911902621
-0.6500574412715999
0.3643519303198406
0.3278003405751552
-0.7278248352990416
0.24908453098889266
-0.5196507896685708
0.4562390706332953
-0.4524898381170426
0.15872951332538562
0.23848859738801922
-0.17383361098730798
-0.7826492067786184
-0.08011436790044617
-0.050843571391864587
0.20190868012686786
0.4277647452544393
-0.39397830700085273
-0.002680633382023386
0.3081696744909459
0.07062104121121511
0.03379399808756498
0.17914490080727144
0.3327618885786609
0.5473149897801401
0.24307491706871787
0.5997701319401944
-0.1507786557118072
0.21213803199062822
0.15475325915649504
0.23797884049530843
-0.26329187139749666
-0.37221324514158716
0.6447632718629223
-0.5341284275450635
0.34348363847125324
0.19875621109416178
-0.6644352855068626
0.17438365851305287
-0.20449260133684735
0.5941684851242506
-0.5776318189212298
-0.6150149195253078
0.009209986195983571
0.1294971732599434
-0.13294221747242227
0.28303395922926416
-0.7792959102766329
-0.05526966965694716
-0.37672005974833667
0.1259139361348943
0.09520558013688912
0.161867713089312
-0.025273055426081895
-0.35723429895484543
-0.32364740282859367
-0.2885273494205977
-0.4309035156237599
-0.3983882643253139
0.19459035330710306
-0.45646855773724143
-0.4219202035294557
-0.12779939010124836
0.20739731848027512
-0.3242236276604728
0.08653217937896711
0.043215861520368236
-0.18835447836282285
0.010778778869006557
-0.24217105815160803
0.47905749831020483
-0.40309040375889016
-0.2532756301910922
-0.6109549788497431
0.19897439374568177
0.30969519562431713
0.1310921593346921
-0.6495173294473764
-0.31133755864918344
0.5992567237014435
0.20982264423087194
-0.4860239988874703
-0.30741098882753237
-0.3068058110960144
-0.45071197424429765
-0.4435597129580698
-0.37205522670088537
0.17005927646744454
0.5972006775039569
0.448471404525741
-0.1584789844032372
-0.6828018303108042
0.12885175500574692
0.2451943546902723
-0.5883497005534027
0.07437857613679208
0.49172583585312607
0.2542884332040367
-0.1778615293717925
0.5612582694987933
-0.24761400510216466
0.3361477166108351
-0.09128870294597313
-0.8146065528388245
0.5382922435879602
-0.45600040403345027
0.11156607395893368
0.5221763880509266
-0.4482294919106786
0.20804710444546312
0.18808630906699259
-0.04567566400430892
0.3996092555669208
-0.028852567303765217
-0.6875489149227341
-0.2867244497785876
-0.48702544970807726
-0.21332798269012004
0.3812594688435523
-0.4981763637576934
-0.09424830288742994
-0.012859342525566655
0.45127911901008144
-0.8129913155213074
-0.44158535352142286
0.21863406830513282
0.2247221143050884
-0.262612510468314
0.30556955605604513
-0.025865247856052164
-0.6771534994728755
-0.713329997579177
-0.5771974397148618
-0.4593718866392232
0.06883128336227552
-0.6543346277101835
0.04543330040196257
-0.049436810211115845
-0.5742235510959838
-0.5442038846004487
0.4582223836357185
0.1986114052215828
-0.5617426716611457
0.3745573543556767
-0.0985754523221753
-0.3084120123380061
-0.2991426143022123
0.11179340220809791
-0.13432344412521374
-0.3025328213415144
-0.7257444490657073
0.46409768475350754
-0.6605743057956484
-0.4305643368934553
-0.3874286768543691
0.4271906900174833
0.49196040329053314
0.16615543031256827
-0.5471616440351962
-0.05780788209948634
0.2970231215805635
-0.029142016170898708
-0.00294033899758887
-0.4411895828237621
-0.20567897553070377
0.038926934417520966
-0.340238037142691
0.16593169962272689
-0.0005118003849278459
-0.4968288408459252
0.0241437746189138
0.4489595075152683
-0.2584901691135589
-0.20509973703778575
-0.5235958161950078
0.11890383985680193
0.01114113078265188
0.19709074446903888
-0.7247528457507411
-0.2635520290465521
0.11958104516366423
0.16117735945741488
0.2660261306786137
0.2665290025932597
-0.127805266433013
0.24964056301025228
0.28003877366709146
0.3085579724824435
0.20367790690103263
0.429554821801936
0.2561118352497803
-0.4247276198328815
0.30399184828567377
-0.6314523410376933
-0.5929556081899022
-0.6541800813109846
-0.5611658374178553
0.16108858363123396
-0.703737103778916
0.4100723614545621
0.6297858376385854
0.29000708767556815
-0.06252944506889833
-0.29635715082506864
-0.48075614356266105
-0.22134351396556506
-0.6486167221947962
-0.6365332156671702
-0.07476463539652081
0.03550575373895941
0.006908528559761899
-0.5601956768188033
0.23005873495765194
0.5901682033705801
-0.13796993332673724
0.38890739543337355
-0.3104989497911151
0.289719751623585
-0.5808512978457494
-0.25889730385551996
-0.6088594305004179
0.16764888110822695
-0.14804715489079806
-0.2704467021645967
0.25621681896355
-0.3899360122299484
-0.29075813005368134
-0.5912131817162728
-0.21616561138574497
-0.47570997635147694
-0.17450521439387648
-0.6781591305490843
-0.23826303838274357
0.4202690878144329
0.7083559990865901
-0.043299237920889015
0.269797482319185
-0.28036431815436313
0.19855309196718865
-0.012546476606280551
-0.0014684133241397795
0.4630212232828395
0.21772705896617311
-0.1338484674515356
-0.06193586362501328
-0.042450870662002094
-0.3365016104116362
-0.006730294666585096
0.38242993663606134
-0.30242534728510123
0.06111549910464647
-0.5582341413592573
-0.2784230224762178
-0.5870258851517961
-0.4955767415764209
-0.2385565765336822
0.24692432953103122
-0.20257939378768713
0.132479726874536
0.3856635390905089
-0.6293747295586756
-0.2588238617353534
0.544707504960682
-0.8076094325164569
-0.004718390289588607
0.006196718531003257
0.006574362824550843
-0.033010879582850504
0.012370143544688614
0.006733469093717808
0.012552830642886285
0.0027924779432922323
0.003986003272262647
0.009669171867234615
0.013575683102129183
0.03218962876985417
0.024112967162726675
0.01563203356928733
0.0026414741399705672
0.01251871728326778
0.0033925397188435177
0.006993588460021862
-0.025012273868544415
0.031550013768393254
0.0220993598586529
0.010353367007714909
0.0034632889476272793
0.0059328963518430885
6.572199805548136E-05
-0.049740091018025026
0.009689088802419856
0.0006198420279575178
0.01099431141420631
0.0030511168186179486
0.011701576505361624
0.009968696878628953
-0.043212369779543604
0.01383322306633222
-0.004006023397931533
-0.028398664078322196
0.008215268553332284
0.003948992072559749
0.005465489940864097
0.05322759094400077
-0.00018658146370490461
0.012767531805936068
0.0066775452735474425
0.0005891340977857928
-0.0035265797719265524
0.0002768589369286089
0.02753809345043211
0.04707313652232169
0.010702411465721323
0.020555617676071412
-0.0007483347003845054
0.005562262485090682
0.008973905573343394
-0.015657133818830795
0.004051833655003327
0.008307768174323034
-0.000511338045890758
0.042071936672468384
-0.013541776866085745
-0.027668514796490684
-0.006063930652850334
0.01473592161805664
0.014118580228925445
-0.04729431875889389
0.0012344127433376157
0.0022842307216415962
0.04276287760884349
-0.005970460133872687
-0.003953092889998259
-0.002000356165732782
0.004050408013477641
0.013866507067034217
0.020672130295484675
-0.005382206109599689
0.04627580041477341
0.0012377090028579689
-0.0008698303443273907
0.08199808563542256
-0.011439585215642074
-0.004925649845398664
0.008723824714518727
0.006930912624001718
0.00266216869463791
-0.031108668111674054
0.0018420116419489198
-0.010386416245886999
0.00490554918313472
0.028998390559540857
0.008439140411645793
-0.007114029163386452
-0.00019716295204118842
0.010456897746801162
0.05584145503835175
0.0893943767043742
0.009130437140341853
0.008948565446218559
0.03485620193620978
0.0017673096685704693
0.008265964695863466
0.0030107223831447203
0.008293976013738201
0.013453639336896467
-0.023660314165079355
-0.003589518031394342
0.017420508469804794
-0.04302794614922433
0.007302289222235836
0.015657075846875337
-0.08077206806043818
-0.013951889376506718
0.030176183495507276
0.02019524417798188
0.019522860711303023
0.011614874668552324
0.04285632447293106
0.004016184649289738
0.007003713837838992
0.007811588742802285
0.04867764911145303
0.003120383220219211
-0.007107097537709048
0.012126705297285557
0.004133089304806239
0.0041464521748529075
0.014178091417351199
-0.009589782245785529
0.03236389004615989
0.010586841735862591
4.057983515826723E-05
-0.019754328145767816
0.005685050682818626
0.003282764480345362
-0.001615490885131023
0.001206355840313591
0.00539180220986267
0.026987694876644364
-0.0073093481490402006
-0.0024984514685692082
0.008621385641638328
-0.046077604789065196
0.004483900465351082
0.02468483434414595
0.030927569398572104
-0.00306072360964309
0.010183377429348267
0.011681849578689002
-0.014136242564336167
-0.001086630741931809
0.014935205650820293
0.005947358072580448
0.00532629910738149
0.023576454663584004
-0.0007701261472264586
0.0038061096435734886
0.0047843328482584276
0.022628081251307473
0.029108998023355967
-0.011237925797204508
-0.03999400558647586
0.008566462471520072
0.007127584693573634
0.004179808739059313
-0.004691815354515318
0.0065268990494086
0.003914083600264133
0.007266199475857085
0.005062862403473696
0.0071496010657179
0.00291425733969799
-0.005282569123288383
0.011931248041080677
0.011999760379993505
0.005250378510500715
0.014375979043180711
0.03383667636744522
-0.03140149744036811
0.004184688192897037
0.007526038104160143
0.0021700882677227738
-0.014247280773352727
-0.03332942118570107
-0.005603390911250541
0.0011152170415541162
0.0032847530215160273
0.007565599189404614
-0.01849375810900773
-0.008139897943595766
0.025411369659945192
-0.012705957933111307
0.004002005583162106
0.04564853852626577
-0.0006283231416496903
0.03528297075445807
0.00034966266655828837
0.01570275552464724
-0.0006626483019884981
-0.0029988862135543947
0.008871809779271501
0.07627873387928472
0.0041498551541663785
0.005100329213157697
-0.005230345973893507
-0.03567714758834613
0.01351052783848366
0.004281010052832121
-0.0023929257174548847
0.004292319975664952
0.006907760782163733
-0.0006746948802873053
-0.006967783663806184
-0.01738073728422567
-0.0019741825191876465
-0.043175656855238706
0.008988768129541578
-0.00944160919886764
-0.004292904801520957
-0.0006875644991535241
0.020187771051046043
0.029805008134266883
-0.03358878072190025
0.021285263837699377
0.004999377655838791
0.001387094134839073
0.02720372662586577
-0.001919720349770823
0.019318017150187314
-0.06606186630458123
0.047409126148145075
0.03754360229457684
0.004245136155458245
0.002923403834222125
0.006778581989267781
-0.007736566065394139
0.09744712669970734
0.004588821403388281
0.014884053317384419
-4.597442727089442E-06
0.002048468116317645
-0.0004114896915327482
2.059278792697447E-05
0.012510224596003445
0.015673760688398968
0.0255659182619314
0.015991000104696798
0.015117316466703692
0.0035483601183468345
0.018889650241247998
0.011253132962115954
0.0046784089377933
-0.008291170036414868
0.008250254206419286
0.0031496116353889637
-0.02686708265598902
0.014096736169902967
-0.02547306526242359
0.011121769583705178
-0.02343152952732882
0.022694498744726673
0.01016602381164334
0.04103557970102865
-0.0036776443128645883
-0.007904625560642699
-0.000690590476219527
0.04115968245876161
0.003545882286775708
-0.06361914088387954
-0.0001943100430656202
0.01280797021147412
0.016467234906097316
0.010764471319483132
0.013501011462463708
0.010703555716537368
0.01157317945946862
0.0003433352363485457
-0.03750817762993945
-0.0051400447049426215
0.008003002471822455
0.07034951947757263
-0.03156265544388459
-0.004883013976422123
0.019198759890834954
0.003016546295071724
-0.01813559496503456
-0.00451137426266492
0.00922041838027026
-0.01494714342226448
0.01410572138156803
-0.004529836709328367
0.005499379582524132
0.1093209763901476
-0.02354517204948973
0.03684658005977363
-0.001062618948985154
-0.016602813470872058
0.02706499192803576
-0.0019466665928776492
-0.002859186650696531
0.008548662126816103
0.0028805544298090204
0.0043091098449369175
0.031210377072757357
0.018638562669171452
0.036506075932516
0.007745493556723917
-0.0016462054026488578
0.005003634206531592
0.0019017439988639436
0.01827459524745941
-0.008178636559440124
0.09517205705555766
0.01505172487839816
-0.0012828843258494323
-0.0007275203186847253
0.02033096284315346
0.002129598364784348
-0.0013783653445543843
0.027551755039769036
0.06490906492876325
0.02351778430947012
0.026440692941826854
0.004160739628827201
0.029508711154093648
0.003385195671743684
0.004271380292434076
0.04546164435885568
0.059101912582478544
-0.01394017834629393
0.0030444706093546246
0.025608663373066855
-0.017019735856634993
0.004503897832582159
0.009543989701582664
0.015901348186659434
0.0013965972823971075
0.016425024776111085
0.01539851232346997
0.06913185044621398
-0.0045106851384810005
0.020817172918510752
0.007197094313172312
0.01082256638627373
0.004464046287298765
-0.02010702194936019
0.000309042568466931
0.0037544622829171564
0.01746088099380212
-0.0066084582073410395
0.004471184599017257
-0.003256661018481524
0.03805265678936295
0.008146936610705518
0.0037180972275204704
0.015271255199037968
-0.010849645367474287
0.0027539755810336887
0.005915025562463246
-0.0032523338788866306
-0.006119877814408048
0.01614072849303804
0.006816462861098967
0.03907195505556947
0.0008887913537991394
0.0037823102618809224
-0.0007512865517358779
0.04008265485582962
0.01693052956326837
0.0011958293397105158
0.0035829639924096946
-0.0015992929150816016
0.00021967326932901296
0.00576814712863431
-0.006375485158906133
-0.007076944105535083
-0.013838462884596694
-0.0015181833411246261
-0.019519676156798588
-0.0005056193255675642
0.024874931661979606
-0.01383651746433459
0.040760786864060004
0.0664111028514409
0.02624896575124727
0.010299511718346373
0.002292225547873579
0.05648831723536931
0.0016676295258669545
-0.023791777677764633
-0.0017451607693089544
0.0034633547558530478
0.009020499468837487
0.017200730353562274
0.012810934732321649
0.018130914972843405
0.038533214913264335
0.007053471984970644
0.0009891611822514406
0.011386186047748706
0.028661239931830774
0.0015557416039362177
-0.0249032172680179
0.01421588036712051
-0.009994615127967966
0.008695074611114847
-0.00047073851077842775
0.017430577565831825
0.015594269379366109
0.02715242725455386
-0.00020498308667574338
0.0074602994028738325
0.01898312401373971
-0.0013219598178993602
0.008629182934497626
0.007992620996792809
0.011703945392467522
0.04795691832038125
0.02495910645094001
0.00665031780852653
0.03529842628715313
0.013016761843483153
-0.02638579901176323
-0.0623010420304523
0.009114137028030773
-0.003331099923103713
0.008517654045255407
0.0025344120942593167
0.009909678700976383
0.0032276622595727544
-0.0157485763142221
-0.002853597972896352
0.0019524442166059138
0.0046960123512062016
0.0042797047888880725
0.012980238873532833
0.0021836913583063748
0.003758513797086699
0.010067751712677415
0.0005974163675654594
0.008616106131804933
0.01797466483378957
0.0198994749400556
0.01031140281103977
0.012958052184163472
-0.003078301478551707
0.007136710679335368
0.0019708837343791414
-0.0034414366155253377
0.07217961438613334
0.02073885358208412
-0.03438628825613658
0.08476691062479479
-0.1253318378200597
